160694 200
的 0.003734 -0.648710 -0.488922 0.168790 -0.503213 0.302805 -2.765832 0.853882 0.086916 -1.992281 -1.092130 -2.810336 -0.577262 2.394849 -2.883468 -0.736434 -1.556546 -0.314630 1.804039 -0.780754 1.805995 -2.460287 0.814484 0.326123 -1.709821 0.788719 0.721279 1.796150 -2.502844 2.540521 3.472769 0.652463 -2.272497 1.927550 -0.598645 -0.306026 -1.553378 1.112824 -0.203933 -1.117326 2.383895 -1.371165 0.348387 -4.141057 -0.477268 -0.180852 -0.193226 2.601994 -0.524420 -0.751029 0.059602 -0.167160 -1.155155 0.724639 1.331330 1.358461 -0.652194 1.835316 -0.609984 -1.826943 -1.222114 2.693943 -1.552335 0.698165 -1.245196 -2.664545 -0.123631 -0.294825 1.155409 -1.584116 -0.646303 -1.114564 -2.139332 0.131251 -1.716761 -2.650044 -1.642633 -0.867023 -2.489777 -1.267635 -0.472454 1.152684 -3.824006 -1.992236 -1.425692 -2.452563 0.610636 -2.014052 -0.123915 1.293275 0.392484 -0.927593 -1.142753 0.732173 2.130996 0.530227 1.502014 -0.110750 -1.260495 -1.658587 0.507452 1.490065 1.599591 -1.119256 -1.925774 -1.030844 2.903831 0.101512 -0.278834 0.150434 -1.558157 0.859413 1.549823 1.702437 1.348299 0.733361 -1.109158 1.993490 0.403428 -1.767784 0.871309 -4.356986 -2.428103 -1.177739 -0.448477 -0.957336 1.270325 2.555428 -1.932122 -1.016287 -1.201641 -1.906405 1.601765 -0.762767 2.073291 -0.884655 3.471844 1.519943 -0.763857 0.774686 2.042577 1.255195 -1.249673 -1.329440 1.808092 0.240231 0.607477 -2.343786 -1.512443 0.304199 -0.873340 2.235384 -0.907754 -1.340556 -0.245196 0.504000 -1.202109 1.473271 -0.818488 2.357982 -0.284483 -1.480892 0.883432 -2.187531 -0.470182 -0.102329 -0.766042 -0.888467 0.109337 -0.771953 -0.094232 1.709722 0.106274 -0.141446 -0.599825 0.074945 -1.040761 -1.417102 1.403618 -0.921049 -0.946803 -0.243793 -1.197047 0.622335 -3.431142 1.667108 -0.028999 1.270729 -1.862827 3.447588 -0.223940 -0.845513 0.454774 0.810617 -1.411824 0.097480 2.051641 0.123080 -2.152938 0.225673
我 -3.772009 -1.104231 0.967677 1.313321 -1.598432 0.195904 -0.683133 1.546294 1.329090 -1.816167 -0.861846 -1.970070 0.848885 2.765720 -0.539473 -0.062915 -1.057135 -1.456879 1.343298 -1.982564 2.961717 -1.784507 0.850270 0.799899 -0.373015 3.009226 1.953220 1.993188 -1.698147 2.417465 2.032299 1.139044 -1.875101 2.557261 0.080056 -1.715608 -0.603272 1.162529 -0.923441 -1.268689 1.154637 -1.093499 -1.666420 -3.150664 -2.005365 -2.102973 -0.034091 2.386652 1.575946 0.444192 -0.419759 0.254235 -1.365380 -0.827302 0.568320 0.468495 -1.000017 1.863279 -0.649363 -2.158511 -0.925674 1.930265 -3.470697 1.157837 -1.579146 0.263934 -0.510749 -2.161661 -1.834324 -0.060583 -4.270145 -0.354025 -0.783990 0.951609 -0.945388 -3.414033 -1.612139 -1.272254 -1.500960 -2.878658 0.821044 -1.833180 -3.636964 0.010497 -0.347825 -1.235015 -1.246727 -2.164850 1.149814 -0.019165 1.070242 0.330222 0.003879 -1.469822 0.094914 0.158392 2.891155 -0.945733 0.386810 -1.063120 -0.756646 0.590745 3.587667 -0.216022 -0.314891 -1.133901 2.868429 0.914128 -0.260686 1.397235 -1.617227 2.507357 -0.108919 2.355516 2.998114 -0.295618 0.228777 0.909090 -3.233915 -0.823543 1.727551 -0.674836 -0.416080 1.127298 -0.727485 -1.654396 0.263282 2.468614 -4.150467 -0.886184 -0.186215 -1.661019 3.023165 -0.962101 1.307848 -1.391753 1.982041 3.437101 0.184254 1.136199 2.933547 -0.338015 -2.012987 -0.665304 2.657747 0.524267 0.944642 -0.901219 0.929179 -1.730447 -0.077211 2.662003 -1.892394 -0.972587 -2.768707 -0.787830 -2.146624 0.096856 0.596904 1.229584 -1.285711 -2.714301 1.959716 -1.623515 -1.889031 1.140430 0.240841 1.150836 -1.971203 -1.272013 0.045220 0.314154 0.219367 -1.049975 0.832752 0.061219 -0.242573 -3.542243 0.829852 -2.011148 -0.801558 1.577666 -0.348821 -0.234085 -4.641335 0.459062 -0.984953 0.056837 -2.172228 0.871545 0.217521 -2.406255 -1.874611 -0.806695 -1.864779 1.366160 -0.048945 -0.346925 -2.836282 -2.181919
了 -2.913388 -0.083955 1.818213 1.282527 -1.922222 -1.766819 -3.545285 0.283412 1.052518 0.219032 -2.969688 -1.990195 0.694968 -0.356573 -3.039884 2.134842 -1.213239 -1.714855 2.674266 -1.579682 1.373385 -1.731999 0.045922 0.912014 -0.836113 2.173840 1.442908 1.238223 -2.211181 2.228572 3.522215 2.681397 -0.248454 0.888599 -0.635383 -2.492164 -1.388543 1.501652 0.250438 -1.065420 -1.356993 -0.155475 -1.594290 -1.442174 -1.893464 -0.758559 1.338167 3.740835 0.820023 -0.009773 0.918284 -0.419428 -4.409759 -0.855945 0.940687 1.531160 -1.030353 2.088008 -2.260530 -0.831800 -1.329992 1.374905 -1.098237 0.932302 -0.899277 -0.668540 -1.849270 -2.618190 -2.973551 1.204710 -1.874431 1.873232 0.536895 0.562873 -1.978173 -2.256510 -1.284717 -0.850044 0.935295 1.053057 -2.102829 -1.452939 -1.830565 -1.281595 -0.550730 -1.944702 -0.999817 -1.400517 -1.568763 0.086302 -0.580427 0.547778 -0.874958 -0.168557 2.036888 1.339519 1.096560 -0.992113 0.404348 -1.963166 0.254581 -1.489298 1.744370 -2.485584 -0.268648 -0.348846 2.651301 -1.046965 -2.428219 -0.177098 -0.218326 1.733141 -0.384584 -0.312037 4.785069 -1.111293 -0.261850 1.532868 -1.070364 -3.563259 2.569316 -1.620166 -0.258094 -0.101855 -1.356682 -2.971240 0.708151 1.868857 -3.177348 -0.753115 -1.923586 -0.902389 1.761711 -1.229754 -2.129361 -0.616943 2.018234 1.355164 0.628620 1.578853 1.465104 0.059163 -1.025634 0.003718 2.900720 1.115292 1.286297 -0.362653 1.086452 -0.390173 -1.734089 1.797319 -0.481017 -0.584204 -1.337465 -0.340609 -0.835594 1.680660 -0.674530 1.906250 -2.497313 -2.549477 1.774005 -2.044068 -3.419899 1.312308 2.060578 1.048096 -2.082106 -0.026498 0.467419 0.476400 -1.121525 -1.103117 3.061976 -0.774810 -0.715672 -4.112955 -0.544498 -0.226907 -0.909044 1.052177 -0.099151 -0.298874 -1.675074 2.611379 -1.483677 0.371086 -0.774466 1.363380 0.264973 -0.272496 -3.230761 -1.120287 -2.392681 1.517401 0.799812 0.513115 -1.866229 -0.898657
你 -3.857043 -0.850377 0.182211 1.109833 -1.169331 -0.068305 -0.293521 1.810409 1.590836 -0.905198 -0.498204 -1.759156 1.393889 3.364420 -0.313699 -0.103668 -1.398065 -1.637007 1.637430 -2.176654 2.636026 -1.033160 1.020756 0.964748 0.087227 1.981441 1.452422 2.243257 -1.647367 2.931112 1.539763 0.678094 -2.386855 1.933119 -0.494490 -2.265841 -0.410968 1.420345 -1.620728 -1.356925 1.082981 -1.976562 -2.454019 -3.488257 -2.056905 -2.429071 -0.251451 2.742973 0.922513 0.522656 0.313622 0.194677 -1.761518 -0.436183 1.232168 0.779005 -0.725699 1.900560 -0.461906 -2.365342 -0.602978 1.578364 -4.143798 0.245363 -1.474268 0.195691 -1.128734 -1.856715 -1.387153 1.160870 -4.505467 0.008297 0.224514 1.355063 -0.773935 -3.399887 -1.968383 -1.720600 -0.897101 -2.585628 0.998565 -2.536029 -3.785873 0.275781 -0.331708 -1.677446 -1.923531 -2.173352 1.197395 0.376726 1.529967 0.990691 0.227475 -1.282338 -0.750075 0.544133 2.912372 -0.831976 1.099174 -0.692954 -0.602161 0.551063 3.251392 -0.378293 -1.246654 -1.961160 2.806379 0.418351 0.313841 0.976248 -2.822562 1.662782 -0.457799 1.696357 2.637310 -0.498356 0.373745 1.449969 -3.245151 -0.733636 0.468176 0.187970 -0.593097 0.939722 -0.974855 -1.677931 -0.237484 2.012537 -4.065850 -0.803742 -1.269403 -0.877435 3.322478 -1.587708 1.070536 -1.445938 1.902537 3.696311 0.969247 1.317584 3.780222 -0.638446 -2.075089 -0.367799 2.959747 0.565343 1.168073 -0.770743 1.236798 -1.341858 -0.358525 2.387339 -2.065116 -1.343448 -3.141551 -0.910416 -1.451110 0.061065 1.103383 1.190288 -0.726486 -3.303774 1.776652 -1.751342 -2.403161 1.237357 0.083571 1.322491 -1.968430 -0.991342 0.707442 0.180279 -0.130721 -0.993167 0.854382 -0.474362 -0.429065 -3.188029 0.609578 -1.851716 -1.442371 1.901121 -0.408890 -0.903918 -3.832781 0.525764 -1.128623 -0.670196 -2.072211 0.932945 -0.237298 -2.772078 -1.816136 -0.557528 -1.447386 1.477872 -0.387600 -0.574405 -2.608067 -2.474196